digraph Tree {
node [shape=box, style="filled, rounded", color="black", fontname=helvetica] ;
edge [fontname=helvetica] ;
0 [label="Sex <= 0.5\ngini = 0.486\nsamples = 642\nvalue = [375, 267]\nclass = Unsurvived", fillcolor="#f8dbc6"] ;
1 [label="Pclass <= 2.5\ngini = 0.362\nsamples = 236\nvalue = [56, 180]\nclass = Survived", fillcolor="#77bbed"] ;
0 -> 1 [labeldistance=2.5, labelangle=45, headlabel="True"] ;
2 [label="Fare <= 22.0\ngini = 0.08\nsamples = 144\nvalue = [6, 138]\nclass = Survived", fillcolor="#42a1e6"] ;
1 -> 2 ;
3 [label="gini = 0.198\nsamples = 36\nvalue = [4, 32]\nclass = Survived", fillcolor="#52a9e8"] ;
2 -> 3 ;
4 [label="gini = 0.036\nsamples = 108\nvalue = [2, 106]\nclass = Survived", fillcolor="#3d9fe5"] ;
2 -> 4 ;
5 [label="Fare <= 20.8\ngini = 0.496\nsamples = 92\nvalue = [50, 42]\nclass = Unsurvived", fillcolor="#fbebdf"] ;
1 -> 5 ;
6 [label="gini = 0.497\nsamples = 72\nvalue = [33, 39]\nclass = Survived", fillcolor="#e1f0fb"] ;
5 -> 6 ;
7 [label="gini = 0.255\nsamples = 20\nvalue = [17, 3]\nclass = Unsurvived", fillcolor="#ea975c"] ;
5 -> 7 ;
8 [label="Pclass <= 1.5\ngini = 0.337\nsamples = 406\nvalue = [319, 87]\nclass = Unsurvived", fillcolor="#eca36f"] ;
0 -> 8 [labeldistance=2.5, labelangle=-45, headlabel="False"] ;
9 [label="Age <= 36.5\ngini = 0.49\nsamples = 93\nvalue = [53, 40]\nclass = Unsurvived", fillcolor="#f9e0ce"] ;
8 -> 9 ;
10 [label="gini = 0.478\nsamples = 38\nvalue = [15, 23]\nclass = Survived", fillcolor="#baddf6"] ;
9 -> 10 ;
11 [label="gini = 0.427\nsamples = 55\nvalue = [38, 17]\nclass = Unsurvived", fillcolor="#f1b992"] ;
9 -> 11 ;
12 [label="Age <= 6.5\ngini = 0.255\nsamples = 313\nvalue = [266, 47]\nclass = Unsurvived", fillcolor="#ea975c"] ;
8 -> 12 ;
13 [label="gini = 0.472\nsamples = 21\nvalue = [8, 13]\nclass = Survived", fillcolor="#b3d9f5"] ;
12 -> 13 ;
14 [label="gini = 0.206\nsamples = 292\nvalue = [258, 34]\nclass = Unsurvived", fillcolor="#e89253"] ;
12 -> 14 ;
}